// NHANES DEXA MLP Body Fat Model
// Trained on 96,210 NHANES DEXA records. Test MAE: 2.61 BF%
// Features: [gender(0=M,1=F), age, height(cm), weight(kg), BMI, waist/height]

var NHANES_BF_DATA = {"architecture":"mlp","feature_names":["GENDER","RIDAGEYR","BMXHT","BMXWT","BMI_COMPUTED","WAIST_HT_RATIO"],"scaler_mean":[0.4676,38.1532,166.138,73.8982,26.558,0.5494],"scaler_scale":[0.4989,22.6625,10.988,21.1052,6.4957,0.0985],"layers":[{"weights":[[0.029166,0.435153,0.443599,0.269283,-0.173761,-0.09676,-0.278268,0.385896,0.378361,0.137699,-0.518429,0.604725,0.387989,-0.218134,-0.070723,-0.421387,0.036794,0.148423,-0.146958,-0.309262,0.307465,-0.0983,-0.285523,-0.069498,0.065278,0.351784,-0.322901,0.090954,0.215053,-0.459352,0.244657,-0.353875,-0.534448,0.433497,0.64283,0.276396,-0.252486,-0.406144,0.379632,0.234016,-0.186086,0.279158,-0.365055,0.462044,-0.519248,0.298844,-0.392875,0.324755,0.027664,-0.39608,0.58458,0.320249,0.315522,0.492278,0.116208,0.565702,-0.487931,-0.109929,-0.458781,-0.331432,0.141002,-0.057078,0.322896,0.026436],[0.02514,0.122152,-0.338332,0.429545,-0.077543,0.394525,-0.102292,-0.233796,-0.611228,0.378273,-0.048198,0.210116,0.442996,-0.104436,-0.136256,-0.119978,0.396839,0.018416,-0.35785,-0.307888,-0.077314,-0.133148,0.380514,0.184882,0.019541,-0.02782,-0.476187,0.488693,0.291078,-0.153041,0.345307,-0.054364,-0.086962,-0.037481,-0.466823,-0.235916,-0.171949,-0.10768,-0.133623,-0.197441,0.392138,-0.308391,-0.178662,0.249334,-0.313028,-0.531324,-0.178467,-0.291808,0.35637,0.424462,0.029825,0.390223,0.207706,-0.360357,0.48385,-0.004463,0.02223,0.243178,-0.202321,-0.179766,-0.188535,-0.075062,0.2656,0.017909],[-0.27453,-0.086076,0.071637,-0.33531,-0.27035,0.060961,0.123743,-0.156705,0.013108,0.120239,-0.087369,0.034112,0.101232,0.055631,0.005314,-0.139626,-0.200725,-0.139246,0.033642,0.024106,-0.404549,-0.060489,0.313535,-0.043014,0.009493,0.039188,0.288897,-0.109877,0.104823,0.16286,0.052045,0.088812,-0.065512,0.09136,-0.183312,0.062776,-0.216535,0.168491,-0.174369,-0.092638,-0.377693,-0.007695,0.034102,-0.153691,0.008203,-0.118397,0.036542,-0.091688,-0.138581,0.096181,0.077884,-0.172393,0.014827,-0.156572,0.06985,0.070003,-0.058235,0.023273,0.218168,0.067667,-0.026295,0.03242,-0.044703,0.286192],[0.158548,0.082914,-0.17379,-0.110413,0.083962,0.303457,0.08591,0.130479,0.005463,-0.235843,-0.16983,0.224511,-0.00342,-0.185372,-0.157234,0.111613,-0.327714,-0.090702,-0.045341,0.059108,0.10843,-0.148203,0.108614,0.129569,-0.01355,0.134109,-0.055975,0.230235,0.056501,0.039119,-0.172484,-0.073206,-0.104087,-0.085817,0.240538,0.026164,0.168343,0.070164,0.244864,-0.060578,0.047287,-0.007576,-0.348227,0.344348,-0.177305,-0.21407,-0.006401,-0.208527,0.161129,0.31533,0.12152,0.00549,-0.103144,0.192507,-0.080643,0.204115,0.230608,0.197412,-0.123434,-0.145227,0.147151,-0.073692,-0.002466,-0.129301],[0.179047,0.213052,0.062598,-0.216813,0.094796,0.365258,-0.248175,-0.000309,0.205159,0.222081,0.183208,0.151413,0.012873,-0.127622,0.3281,0.222523,0.163579,0.366935,-0.019896,0.050598,0.262329,0.151191,0.084678,0.36766,0.322057,-0.073266,-0.248065,-0.13235,0.034849,-0.23211,0.046531,0.080568,-0.093952,0.247513,-0.085627,-0.093154,0.173252,-0.067819,-0.168077,0.077266,0.137549,-0.063957,-0.129578,-0.016334,-0.300229,0.122522,-0.085065,0.157561,0.13177,0.326854,0.098097,0.070053,0.376604,-0.061706,0.061343,-0.118425,-0.330536,0.330955,0.178337,0.0559,0.042785,-0.092444,0.093251,-0.362132],[-0.033769,0.224707,0.099842,0.019599,0.1425,0.121996,0.079219,-0.020093,0.014738,0.030668,0.015986,0.236796,0.035432,-0.711672,-0.249778,-0.08158,0.314403,0.144973,0.039849,-0.136181,-0.098783,0.074115,-0.094067,0.464413,0.019384,0.078277,0.183159,-0.088044,-0.061797,0.307004,0.150766,0.367827,0.344105,-0.134103,-0.151786,0.262519,-0.294458,0.036919,0.23677,0.010383,0.01446,0.078284,-0.07608,0.151085,0.38136,0.001899,0.354221,0.278917,-0.276329,-0.208013,-0.291101,-0.111012,-0.307483,0.117249,-0.027424,-0.085739,0.435062,-0.229093,0.214055,0.128009,-0.05795,0.407853,0.241104,0.242004]],"bias":[0.285485,0.368256,0.150319,-0.141042,0.086515,0.188618,0.300121,0.100675,-0.045357,0.444335,0.072289,0.399764,0.414527,-0.1718,0.348463,0.254833,-0.102455,0.437609,0.249361,0.383657,0.184138,0.44205,-0.100934,-0.143152,0.473949,-0.120712,0.057303,0.507885,0.446182,0.118431,0.240708,0.049537,0.028211,-0.008603,0.26246,0.3317,0.188528,0.287415,-0.126368,0.198573,-0.262954,0.271395,-0.094379,0.332731,0.012584,-0.203528,-0.234326,0.313781,0.222223,-0.066073,-0.103106,0.242827,-0.208569,0.387101,0.493659,-0.117769,-0.044306,0.446246,0.114927,0.027032,0.451204,0.404118,0.433044,0.115334],"shape":[6,64]},{"weights":[[0.007389,-0.112045,0.180785,0.117922,-0.017713,0.26516,-0.101774,0.035359,-0.193737,-0.040817,-0.146503,-0.114416,-0.128309,0.087428,0.273446,-0.076915,0.293771,0.009937,0.387846,0.265578,-0.169715,0.320506,-0.214183,0.187768,-0.147007,0.154327,0.11431,0.340283,-0.136743,0.111174,0.333399,-0.096821],[0.21419,0.285061,0.155402,0.19979,0.130241,-0.009936,-0.07445,0.03794,0.349129,0.112011,0.110238,0.239251,0.050864,-0.105997,0.022162,-0.065486,0.150787,-0.075183,0.21662,0.397485,0.060684,0.180038,-0.004378,0.111019,0.22121,-0.109499,0.343665,0.29525,0.369901,0.255752,0.214197,-0.039176],[0.39223,0.340231,-0.008084,-0.06987,0.028376,0.127548,0.413357,0.03657,0.174797,-0.001072,0.39839,0.312476,0.332598,0.0351,-0.074622,-0.244231,-0.048377,0.350862,-0.845804,0.421564,0.210201,0.209042,0.279076,0.127489,0.3057,-0.338803,0.142652,-0.028044,0.407286,0.222585,0.052327,0.336862],[0.027727,-0.211715,-0.549454,0.110162,-0.301382,-0.141758,-0.020328,0.105338,-0.039034,0.010208,0.187485,-0.34549,-0.236771,-0.548024,0.020201,-0.076315,0.177758,-0.10438,-0.42743,-0.294359,-0.110087,0.018189,-0.20793,-0.041127,0.222962,0.514412,0.052388,0.181619,-0.067985,0.049744,0.169894,0.230311],[-0.125708,0.26986,0.051367,-0.072312,-0.1089,0.292204,0.045742,0.005989,0.030623,-0.139464,-0.157024,-0.119974,-0.141823,-0.116993,-0.250741,0.069216,-0.091976,-0.058537,0.286937,0.056762,0.0517,-0.097842,-0.198609,-0.269408,-0.138226,0.020092,-0.09211,-0.152165,-0.114029,0.044106,-0.052154,-0.022414],[0.088229,0.182695,-0.259625,0.235295,0.005943,-0.166537,0.273856,0.276503,-0.195365,-0.093434,0.233428,0.151312,-0.084309,-0.169924,-0.105316,-0.219726,0.135741,0.004221,-0.07124,0.210875,-0.265579,-0.031537,0.058372,0.117755,0.086999,0.150869,-0.102285,0.061138,0.101017,-0.03973,-0.024026,-0.05701],[-0.103292,0.057802,-0.058395,0.048443,-0.087793,0.249393,0.192586,0.204012,0.294722,-0.032739,-0.089878,0.16787,0.190064,0.010939,-0.089611,0.236159,0.002016,0.072364,0.085504,0.164892,-0.077195,0.384209,0.218888,-0.136176,-0.057153,-0.128747,0.01683,-0.026889,-0.042852,0.04064,-0.019171,0.248504],[-0.102514,0.093443,0.04304,0.33889,-0.222738,-0.184385,0.334586,0.284242,0.204022,-0.037911,-0.068027,0.162657,0.318535,0.165342,0.266651,-0.079499,0.239092,-0.068755,-0.989218,0.0628,-0.025266,-0.016025,-0.18803,-0.011237,-0.004818,0.159673,-0.065979,0.091393,0.120982,-0.121433,0.03554,-0.163437],[-0.07015,0.397956,0.020816,0.283614,-0.154685,-0.827764,0.263542,0.25605,0.032497,-0.070219,0.070036,0.313761,0.284389,0.295309,-0.139385,-0.140183,0.37869,-0.061736,-0.850571,0.282388,0.0107,0.323942,-0.142947,0.081992,-0.045163,-0.103165,-0.022284,0.291269,0.253385,0.164205,0.10331,0.369118],[0.143349,0.34523,0.21336,0.117003,0.133657,-0.206678,0.310089,0.19726,0.048678,0.150049,0.105328,0.182542,0.414994,-0.010279,-0.474478,0.195135,0.236194,0.116723,-0.989982,0.319023,0.024164,0.209189,0.355751,0.16692,0.013373,-0.417066,0.050368,0.297586,-0.060007,0.210707,0.318493,0.394253],[0.035695,0.291181,-0.109712,0.298911,-0.022138,0.075624,0.28287,-0.07435,-0.004836,0.044472,0.214493,0.206009,0.198369,-0.175935,0.040866,-0.2265,-0.073661,0.285675,0.238002,0.069754,-0.047393,0.35076,-0.015293,-0.099542,0.121312,0.066561,-0.118729,0.299445,0.322821,0.155301,0.223663,0.23654],[0.225024,-0.031273,0.139695,0.16499,-0.024025,0.16228,0.337221,0.327556,0.056341,-0.210069,0.351638,0.27681,-0.055839,0.244262,0.309439,0.056451,0.145516,0.064154,-0.313222,0.038182,0.113379,-0.117215,-0.043392,-0.102749,0.129223,0.326216,0.042864,0.041125,0.236131,0.095682,-0.006589,0.004281],[-0.024433,-0.03091,0.160054,0.113811,0.315251,-0.031881,0.185798,0.219087,-0.097721,0.056937,-0.023745,0.320875,-0.012526,-0.045582,-0.263638,0.236126,0.16704,0.215661,-0.513373,0.258497,-0.172702,0.351522,-0.012776,-0.135249,-0.073437,-0.17466,0.191888,-0.051597,0.279017,0.12826,0.176106,0.131952],[-0.039144,-0.041849,-0.611759,-0.121051,0.026228,0.234572,-0.075235,-0.133143,0.016367,-0.067109,-0.211619,-0.662883,0.066443,0.475722,0.150508,-0.536023,-0.053674,0.134029,-0.140217,-0.208392,0.126603,-0.158678,0.013473,-0.042413,-0.201009,0.032772,0.153133,0.202678,0.179051,-0.040016,0.085693,-0.058364],[-0.000216,0.291361,-0.302738,-0.074847,-0.04534,-0.163119,-0.03969,0.143229,0.070044,0.147685,0.262432,-0.113865,-0.046566,-0.023825,0.183289,-0.00999,0.14114,0.056601,0.072804,0.079568,-0.123732,0.342669,0.271047,-0.252409,0.243292,-0.280612,0.329461,0.263507,0.074092,-0.116266,0.017482,0.026976],[0.19945,0.038991,-0.114184,0.312735,0.390914,0.082737,-0.005208,0.044087,-0.120193,0.148848,-0.061923,0.200013,0.00645,-0.091545,0.174014,0.045071,-0.046027,-0.139596,-0.083656,0.357233,0.156178,0.203773,0.199747,-0.128883,-0.083978,0.121798,0.111285,0.076099,0.155598,-0.068827,0.010273,0.160657],[-0.247139,-0.081245,-0.481515,-0.078369,-0.450544,-0.551655,0.057046,-0.180381,-0.120025,-0.004973,0.047502,0.034936,0.055629,0.046607,0.070452,-0.38533,0.058005,-0.259369,-0.228032,-0.013678,-0.122886,0.087582,-0.466439,-0.36317,0.100426,0.196768,0.07729,-0.054357,-0.16531,0.1227,0.101485,0.055869],[-0.007589,0.172014,-0.011816,-0.098586,0.220006,-0.480917,0.343647,0.057006,-0.091613,-0.025759,0.278779,0.242707,0.251296,0.073936,0.193506,0.132268,-0.057475,0.073958,0.148351,0.359098,0.183893,-0.112452,0.114471,0.16764,-0.07221,0.015661,0.311317,-0.13908,0.201178,0.002791,0.322116,0.177803],[0.352885,0.128758,0.223749,0.339152,-0.004876,0.186284,-0.084091,0.194162,-0.016696,-0.222957,-0.059372,0.18933,0.045744,0.12895,-0.132226,0.024186,0.198624,0.297559,-0.076973,0.201463,0.03998,0.208072,0.010035,-0.481451,0.311933,-0.138524,0.372109,0.192797,0.371304,0.304645,0.416302,0.028655],[0.251375,0.053149,-0.046645,0.20991,0.245932,0.300722,0.265617,0.098625,0.068074,0.070679,-0.006678,-0.163617,0.033183,-0.05961,0.104337,-0.034455,-0.103155,-0.117474,0.253444,0.088099,-0.077193,0.224041,-0.015304,0.14563,0.226514,-0.43449,0.11343,0.329034,0.353992,0.125111,0.21775,-0.081764],[0.374553,-0.029934,0.265316,0.199513,0.039517,-0.230696,-0.007893,-0.055868,-0.075912,-0.031152,0.258236,0.026871,-0.095134,0.41601,0.401423,0.035924,0.363229,-0.046154,-0.113583,0.253156,0.057835,-0.050656,0.17279,-0.198032,-0.018034,0.125087,0.173255,0.159666,-0.079275,0.312944,0.007614,-0.169475],[0.311583,0.352178,0.356702,0.295437,0.267671,0.056436,-0.059798,0.071811,0.083314,-0.16456,0.221897,0.129677,-0.097645,-0.19785,0.11503,-0.3079,0.270586,0.129781,0.096096,0.168329,0.127652,0.059923,0.263334,-0.138768,-0.011654,0.1182,0.285735,0.202236,0.292611,0.313641,0.247148,0.204001],[0.148189,0.038932,-0.144578,0.127811,-0.460577,0.371265,0.174434,-0.16333,0.036633,-0.193088,-0.061242,-0.006054,-0.14917,0.357758,0.318392,-0.569558,-0.187553,-0.116857,-0.140032,0.267829,0.0,-0.102785,-0.166859,0.114168,0.115975,0.067927,0.139571,0.016989,0.270721,-0.050108,0.082757,0.387394],[-0.420726,0.040783,-0.205865,-0.436936,-0.222228,0.087952,-0.432727,-0.24473,-0.250279,-0.03151,-0.432393,-0.097357,-0.024689,0.515962,-0.032211,-1.252509,-0.156994,-0.48378,0.004902,-0.275622,-0.022263,-0.085175,-0.148495,-0.043056,-0.361851,0.502137,-0.252622,-0.236135,-0.383443,-0.055687,-0.137572,-0.581516],[-0.100299,0.22801,0.159823,0.000694,0.275816,-0.098524,0.086163,0.33016,0.055384,0.0162,0.049767,0.00826,0.348229,-0.081961,0.261846,-0.07898,-0.05272,-0.129458,0.287338,0.052263,0.143402,0.111258,0.295897,-0.289723,0.28197,0.012769,0.254662,0.281198,0.243667,0.173549,-0.05556,-0.21833],[0.305719,0.138294,0.220721,0.047364,-0.206413,-0.070353,0.171056,0.029364,-0.156755,0.0,-0.147828,0.112478,-0.047659,0.417727,0.092001,0.264824,-0.210597,-0.175728,-0.000665,0.085945,5.1e-05,-0.048037,0.067788,0.076347,0.174958,-0.033208,0.034668,-0.14924,-0.051121,0.322618,-0.117457,-0.07495],[0.209826,0.250815,0.137434,-0.046897,0.067126,0.015796,-0.033288,0.085659,-0.0273,-0.23109,0.117652,-0.028556,0.207103,0.151197,-0.014163,0.18037,0.056651,0.019674,0.038955,0.249503,0.0,0.391274,0.055734,-0.050707,0.293431,0.010956,0.323878,0.368874,0.0798,0.33454,-0.010664,0.35153],[0.183094,0.2718,0.10406,0.224032,0.115812,-0.000544,-0.062033,-0.05742,0.012865,-0.184801,0.318643,-0.074907,0.403585,-0.169593,-0.330037,0.108069,0.237575,0.163253,-0.89374,0.244123,-0.166329,0.400476,0.365132,0.075419,0.005197,-0.206515,-0.06236,-0.087744,0.019767,0.129278,0.337718,0.315099],[0.258456,0.09115,0.067919,0.059847,0.276504,-0.150172,0.308974,0.176361,0.079232,0.077295,0.113056,0.271729,0.35017,-0.0546,-0.131261,0.066524,0.342831,-0.002614,-0.233485,0.185634,0.078444,-0.047038,0.190562,0.212771,-0.025196,-0.173852,0.368208,-0.024505,0.302323,0.125786,0.013543,0.350792],[0.082648,0.11304,0.080833,0.184061,-0.054872,-0.008331,0.356749,-0.026914,0.230743,-0.128074,0.248311,-0.029804,0.348143,-0.047819,0.005103,-0.335529,-0.030121,0.163217,-0.00172,0.264304,-0.022048,-0.004638,0.257037,0.058843,-0.034375,-0.117829,-0.086193,0.267948,0.183498,0.114562,0.303896,0.233873],[0.147147,0.237912,-0.187141,-0.088895,-0.195258,-0.394756,0.111965,0.30373,-0.176405,-0.163014,0.064832,0.226938,0.010812,-0.080756,-0.261321,-0.278727,0.34948,0.34327,-0.459034,0.309258,0.032145,0.283328,-0.036363,-0.009392,0.102483,0.050847,-0.077325,-0.13818,-0.003198,0.19596,-0.056548,0.207907],[0.318295,-0.087173,0.139755,0.066165,0.21765,-0.493967,0.195556,0.23337,0.281336,0.026644,0.083833,0.10375,0.249966,0.007045,-0.16721,0.0679,0.167509,0.139365,-0.078748,0.171714,-0.003707,0.169647,-0.171788,-0.098894,0.324792,-0.02528,0.338685,0.050511,0.270556,0.236289,0.121481,0.125239],[0.313372,0.086376,0.132763,0.250531,0.394112,0.106343,0.315463,0.050905,0.362961,-0.214577,0.149687,-0.052496,0.031193,-0.413697,-0.018403,-0.063668,0.056832,0.154901,0.162392,0.05503,-0.138678,-0.065152,0.292881,-0.232008,0.234337,0.157827,0.101436,0.341703,0.121837,0.130161,-0.096791,-0.042094],[0.077221,0.062395,0.320285,0.193794,0.317848,0.325881,0.320698,0.261854,0.428234,-0.184395,-0.036245,-0.143282,0.24168,0.353402,0.19294,0.336061,-0.05964,0.419455,0.0,-0.092909,-0.030311,0.033617,0.110902,-0.16298,0.327334,0.057396,0.0704,0.221219,0.228922,0.020199,0.148545,-0.12412],[0.019531,0.244067,0.003323,0.205293,0.220478,-0.519902,0.218855,0.071472,0.392158,-0.033869,0.320933,0.101285,-0.058872,0.125049,0.392878,0.129988,0.327739,0.376085,-0.880399,0.0281,0.032156,0.144228,0.337156,0.119157,0.077385,-0.200138,0.328823,0.071094,0.338854,0.148254,0.287835,-0.112459],[0.224792,0.155394,0.426682,-0.02092,0.346501,-0.052085,0.040113,-0.009319,-0.100772,0.021521,0.174721,0.221716,0.035108,-0.090916,-0.035015,-0.041406,0.317285,-0.059771,-0.110169,0.120364,-0.060992,0.280121,0.230344,0.188435,-0.087469,-0.158468,0.235933,0.150759,0.033516,-0.055441,-0.032313,0.204493],[-0.087044,-0.031891,-0.340634,0.021459,-0.244037,-0.033198,-0.135762,0.248588,-0.105879,-0.030873,0.271839,-0.031939,0.063862,-0.083543,0.103316,0.317926,0.355212,0.140145,0.012626,0.197488,-0.043051,-0.130695,0.067395,0.110366,-0.142912,-0.000951,-0.032821,0.11299,-0.107537,0.066766,0.25562,-0.027686],[0.197762,0.263504,0.224754,-0.008542,0.003738,-0.067081,0.367252,0.309623,0.114613,0.118336,0.120239,0.156778,-0.101986,0.067966,0.025784,0.428712,0.253189,0.21946,-0.180016,0.015206,-0.020938,0.050689,-0.117831,0.210352,0.138928,-0.205134,0.080676,0.101001,0.157406,0.135145,0.336138,0.05205],[0.277726,0.166949,-0.28563,0.203824,-0.47286,0.081191,-0.057285,0.206865,0.022056,-0.028856,0.14762,-0.11455,-0.219699,0.24512,0.15673,-0.44329,-0.097338,0.101297,-0.293401,0.194912,-0.200455,0.17549,-0.043817,-0.070788,0.015971,0.481472,-0.180241,-0.026373,-0.026679,-0.162061,-0.073614,-0.355768],[-0.130172,-0.099592,0.266914,0.15021,0.207458,0.089441,0.016912,0.124605,0.044745,-0.052025,0.180698,-0.05291,0.177198,0.186415,-0.061493,-0.192274,0.280392,0.095124,-0.214089,0.351187,-0.255453,0.218222,0.279594,-0.206155,-0.054611,-0.18311,0.034373,-0.077631,0.215849,-0.106937,0.136742,0.351353],[0.259521,0.131421,-0.251353,0.140261,-0.085183,-0.494327,-0.09354,0.250764,-0.035848,-0.029438,0.008454,-0.053445,0.228705,0.099544,0.008347,-0.674014,0.000831,0.020486,-0.146482,-0.021038,0.081124,-0.092872,-0.068747,-0.358523,-0.181933,0.125194,0.309075,0.212382,0.31363,0.081653,-0.133817,-0.03134],[0.120131,0.306958,0.019518,0.156602,-0.019525,-0.106759,0.271634,0.150439,0.067713,-0.08644,0.122173,0.235989,0.327869,0.272426,0.003469,-0.04849,0.240339,0.122313,-0.172164,0.314195,-0.23987,0.356377,0.146179,-0.020541,0.191299,0.049597,0.231212,0.210584,-0.064738,0.163948,-0.005628,0.248476],[0.159097,0.205645,-0.156829,-0.015861,0.249746,-0.221076,-0.029312,-0.121622,0.527472,0.089058,0.051438,-0.120668,0.121324,0.203245,-0.065416,-0.232503,-0.001993,0.088563,0.114452,0.255904,-0.09433,-0.073675,0.085498,0.275385,0.191529,0.456276,0.229404,0.107653,-0.035148,-0.011847,0.213475,0.184621],[0.194875,0.130342,-0.162203,0.363948,0.154212,-0.279446,0.367765,0.169009,0.145605,0.068799,0.267938,0.160143,-0.05485,-0.045983,0.237597,-0.153797,0.051574,0.10114,-0.02996,0.173262,0.184418,0.00279,-0.1335,-0.206407,0.318474,0.11306,0.022784,0.281265,0.301028,0.29173,0.342368,-0.064504],[0.346667,0.191546,0.542951,0.375043,0.473581,-0.040923,0.104801,0.22644,0.541862,0.139085,-0.024991,0.140895,0.052292,-0.150242,-0.119586,-0.278185,0.206573,0.433761,0.145019,0.228564,0.023012,0.255119,0.248442,-0.213171,0.352761,0.505505,0.307172,0.362593,0.025568,0.211293,-0.007996,0.028072],[0.203507,0.230189,-0.305963,0.102532,0.039038,-0.167025,0.100291,0.262753,0.115637,-0.11422,0.056377,0.002107,0.11078,-0.076381,0.003732,-0.491345,0.446724,0.052546,-0.477104,-0.001074,-0.11093,-0.07221,-0.047419,0.123396,0.394029,0.093529,0.159816,0.287848,0.318433,0.155859,0.099569,0.448874],[0.205478,-0.048428,0.274422,0.037102,0.273557,-0.632757,0.178111,0.089862,0.177005,-0.030981,0.151445,0.164271,0.123224,0.033905,-0.208158,0.059152,-0.04587,0.22435,-0.061885,-0.080176,-0.055065,0.060568,0.259962,0.07048,0.236296,0.362058,0.101755,-0.045946,0.03043,0.099198,-0.05439,-0.183969],[0.164728,0.218289,0.372927,0.329762,0.065082,0.055579,0.183344,0.276673,-0.13458,-0.065939,0.275703,0.047405,0.16291,0.118807,-0.074135,-0.296897,0.029949,-0.136437,-0.234868,0.280595,-0.147553,0.134139,-0.079943,0.161009,-0.012072,-0.012205,0.301438,0.275572,-0.036097,0.264541,0.109519,0.089734],[-0.075462,-0.127259,0.091807,0.113569,-0.039626,0.173828,0.231427,-0.056716,0.150482,-0.180112,0.231266,0.031102,0.357804,-0.271124,-0.557378,-0.118231,0.041281,0.017788,-0.433478,-0.039192,-0.133398,0.245479,0.01657,0.140617,-0.076124,-0.478872,-0.088842,-0.070439,0.308446,-0.065884,0.153078,0.171012],[-0.062085,0.146698,-0.470568,0.087636,-0.043528,0.459929,0.204875,-0.197179,-0.160319,-0.031321,0.128666,0.107914,-0.137135,0.222906,-0.146474,-0.244746,0.027335,0.176402,-0.126796,-0.06822,-0.039766,-0.171565,-0.343334,-0.123639,0.142873,0.302518,0.020116,-0.194968,0.205367,0.1262,-0.208691,0.15372],[0.16733,-0.040375,0.229226,0.185806,0.083231,0.413805,0.342419,0.227045,0.204761,-0.037466,0.24097,0.126287,-0.047762,0.158284,0.382714,0.230683,0.016902,0.378999,0.485441,0.00144,-0.075414,0.088769,0.41327,-0.070305,0.066023,0.182305,0.407408,0.422486,0.016168,0.144587,0.450433,0.323614],[-0.163479,-0.20153,-0.06047,0.318866,0.005471,-0.067604,-0.116452,0.14451,0.249173,-0.070017,0.219853,0.166799,-0.068028,-0.021559,-0.194568,0.099469,0.178312,0.203037,0.116406,-0.0015,0.172242,0.099314,-0.118067,0.062412,0.267754,-0.307673,0.300493,0.320087,-0.033005,0.321451,-0.078527,-0.012723],[-0.11831,0.182884,0.053823,-0.060658,0.005517,0.054725,-0.143987,0.226062,0.252708,-0.007337,0.2996,-0.115394,0.307633,0.012387,-0.190611,-0.107275,0.341501,0.112169,0.0,-0.231944,-0.00289,0.075751,0.200858,0.150919,-0.080641,0.134144,-0.030442,0.301384,0.213458,0.076632,0.197753,0.064188],[0.125663,0.311848,0.185087,0.065542,0.065793,-0.035612,0.061513,0.001258,0.222159,0.07202,-0.069817,0.031477,-0.020252,-0.013971,0.069615,0.135576,0.202454,0.196675,-0.39153,0.314416,-0.04885,0.395069,0.16398,-0.249848,0.212441,-0.05627,0.232908,-0.084164,-0.01669,0.316117,0.027504,0.262906],[0.053293,0.193142,0.235744,0.157272,-0.02472,-0.051406,-0.091486,0.057746,0.207586,0.187399,0.323332,0.230172,0.310057,0.024623,-0.244688,0.170076,0.255855,0.193774,-0.837539,0.110683,-0.053432,0.334343,0.135266,-0.014019,0.39608,-0.546614,0.116846,-0.070664,0.262152,0.36149,0.044581,0.378902],[-0.009905,0.300763,0.287372,0.258499,-0.129297,0.422875,0.205531,-0.000794,0.245931,-0.093554,0.278952,-0.153417,0.191357,0.14182,0.221294,0.023504,-0.121279,0.094803,0.033086,0.133198,-0.025166,0.000339,0.236979,-0.307002,0.289334,0.191865,0.194764,0.168151,0.289487,-0.056017,-0.095881,-0.030394],[0.277174,-0.04428,0.177057,0.379849,0.319138,-0.81496,-0.056583,0.203763,0.169543,-0.031135,-0.093221,0.266767,0.185077,-0.235389,-0.207951,-0.234694,0.066016,0.079396,0.003864,0.09875,0.070948,0.186572,0.285161,-0.242694,0.174654,0.278162,0.166977,0.223688,-0.037659,0.136353,-0.092006,-0.138803],[0.097981,0.218509,0.267803,0.149301,0.188195,0.042028,0.183058,-0.143153,-0.038013,-0.116455,0.075036,-0.18999,-0.094423,-0.192648,0.294921,0.059814,0.050588,-0.068538,0.116079,0.002965,-0.171844,0.118732,-0.189257,-0.277446,-0.05837,-0.218193,-0.091793,0.020411,0.243705,0.144501,0.11239,-0.139653],[0.306622,0.059031,-0.173922,0.16697,-0.164047,-0.082773,0.107552,0.280707,0.062599,0.040127,0.348275,-0.059353,-0.028643,-0.09066,0.00319,-0.252737,0.308578,0.170594,0.107747,0.007083,0.000965,0.333238,0.22022,-0.387147,0.143993,-0.148922,0.001957,-0.104337,0.157418,0.202475,-0.072873,-0.008912],[0.08042,0.033325,0.043815,0.113209,0.258965,-0.206756,-0.058223,0.055807,0.445321,0.031483,0.196591,0.203253,0.190717,-0.364327,-0.036839,0.0857,0.188994,0.36287,0.208115,-0.086303,0.158901,-0.085244,0.249211,-0.388633,-0.082848,0.043628,0.053093,0.139552,0.14547,-0.083437,-0.025961,0.082222],[0.042481,0.245413,0.192684,0.311204,0.233215,0.014798,0.223307,0.029673,0.024694,0.094451,0.091498,0.243552,0.268362,0.242512,0.423464,0.082385,0.017018,0.157906,-0.072315,0.183347,0.075547,0.231333,0.095693,-0.262014,0.044799,-0.348201,0.338429,0.056385,-0.041352,-0.094838,0.233527,0.107527],[0.05625,-0.070509,0.245336,0.042941,0.304679,-0.004841,0.093959,-0.020475,0.397054,-0.071397,0.199266,0.040663,0.139517,-0.378445,-0.023985,0.007336,0.021976,-0.090247,-0.066982,0.073033,-0.200989,-0.09274,0.271619,-0.176378,0.028865,0.244073,-0.069263,0.338099,0.020068,0.324802,0.18632,0.187829],[0.329285,-0.048459,0.204724,0.03581,-0.132562,-0.286073,0.110135,-0.119232,0.076242,-0.024197,0.201891,0.188921,0.051171,-0.149658,-0.081396,-0.227522,-0.153735,0.011953,0.42391,0.307539,-0.006927,0.010303,0.026531,-0.290143,0.058947,0.148248,0.080068,0.03059,0.320576,0.269289,0.139336,0.023395],[0.185961,-0.10801,-0.004431,-0.165438,-0.125577,-0.042967,-0.048011,0.258297,0.230048,0.080219,0.076972,0.252202,-0.063706,0.066131,-0.424969,0.018294,-0.060411,0.292376,0.234233,-0.109786,-0.047714,0.322797,-0.060209,0.245333,0.168758,0.415294,-0.063051,-0.096512,0.177943,0.026896,0.029843,0.094629]],"bias":[0.164435,0.308765,0.364278,0.090668,0.278562,0.176707,0.175983,0.347959,0.002645,-0.236239,0.291502,0.077605,0.314648,0.151262,-0.125696,0.184235,0.096728,0.156172,0.131968,0.331277,-0.274116,0.12764,0.248007,0.057662,0.236902,-0.403026,0.040026,0.065056,0.269802,0.019582,0.001765,0.296628],"shape":[64,32]},{"weights":[[-0.223186,0.362039,0.140951,0.357178,-0.166525,-0.406311,0.292705,0.360766,0.294977,-0.255436,0.14478,0.31461,0.060569,0.313063,0.371732,0.210053],[-0.157491,-0.132869,-0.25731,0.054001,-0.093342,-0.309585,0.015978,-0.150365,0.339925,0.23552,-0.318124,0.441293,-0.029222,-0.0214,-0.169885,0.132315],[0.483926,0.183032,-0.642027,-0.062084,-0.081017,-0.626512,0.063033,0.12016,0.473876,0.181691,-0.081847,0.529365,-0.135975,0.227411,0.060537,0.368059],[0.461249,-0.060639,-0.04481,0.225891,-0.265261,0.231952,0.123195,0.082627,0.181106,0.016256,-0.312488,0.250736,-0.22422,0.272428,0.350489,0.339869],[0.253728,0.00277,-0.504526,0.304029,-0.187332,0.002565,-0.022944,-0.112959,0.217676,-0.327171,0.15741,-0.018423,-0.380058,0.124482,-0.170186,0.018568],[-0.312412,-0.341087,0.888252,-0.567131,-0.19354,0.338013,-0.395496,-0.628753,-0.373778,-0.026957,0.223585,-0.344278,0.171614,0.053892,-0.304434,0.001009],[0.029718,0.24423,-0.225735,0.241703,-0.023835,-0.162449,0.204267,0.256203,-0.237654,-0.260997,0.132632,0.227862,0.286907,0.294041,0.430878,0.258389],[-0.016978,-0.318226,0.222023,0.218544,-0.32727,-0.098204,0.441315,0.121109,0.073436,-0.079221,-0.218265,0.024391,-0.129635,-0.19945,0.308996,0.066236],[0.303334,0.377764,-0.22184,0.240243,-0.0,0.329891,-0.071891,0.259345,0.210161,-0.029006,-0.006293,0.242519,0.002505,-0.001645,0.231237,0.05728],[0.0,-0.181093,0.151737,-0.123556,-0.089147,-0.160766,-0.007025,1.5e-05,-0.119348,0.0,0.0,-0.055254,-2.4e-05,-0.270389,0.000169,-0.032356],[0.118981,-0.105304,0.082857,0.176882,-0.367461,0.021394,0.440105,0.128992,0.23871,-0.177659,0.174497,0.302963,-0.025931,0.446936,-0.14741,-0.218359],[0.326086,0.168357,-0.184199,-0.043559,-0.272267,-0.491779,0.317548,0.144569,0.023436,-0.12008,-0.354205,-0.017633,0.070764,0.457716,0.373627,-0.202882],[0.384012,0.194365,0.190418,0.125631,-0.029061,-0.092899,-0.150548,-0.034353,-0.022208,-0.030582,0.0,0.137615,-0.177424,0.479449,0.470773,0.359931],[-0.30292,-0.141488,0.847992,-0.463443,-0.109341,0.031929,-0.453357,-0.562787,-0.17441,-0.030817,0.039472,-0.4422,0.188165,-0.087123,-0.359785,-0.105614],[-0.52267,-0.212045,0.383743,-0.474422,-0.0,0.507361,-0.189166,-0.650246,-0.585684,-0.030775,0.014949,-0.362111,-0.0,-0.007869,-0.308709,-0.530514],[0.574778,0.111552,-0.846072,0.086421,0.189536,0.244692,0.32323,0.33151,-0.002237,-0.0,-0.052623,0.042625,-0.324782,0.49796,0.648071,0.552565],[0.389999,-0.274349,0.349629,-0.076165,0.280199,0.31836,0.288014,0.477114,0.188549,-0.198842,-0.060445,0.203795,-0.3214,0.224189,0.479592,-0.075764],[0.296763,0.33599,0.107436,0.467863,0.0,0.406837,0.322703,-0.103211,0.125049,-0.028278,-0.0,0.241197,0.021874,-0.097025,0.162022,0.33256],[-0.708896,0.224756,0.156281,-0.729671,6.6e-05,0.473791,-0.543114,-0.829148,-0.762745,0.0,0.000323,-0.92145,-0.042852,-0.959461,-0.647064,-0.521521],[-0.132977,-0.220937,-0.049176,0.414066,0.319642,-0.475222,0.306687,0.034888,0.046375,0.116767,0.27734,0.436291,0.013768,0.017754,0.329309,-0.042157],[0.0,-0.091934,-0.0,-0.155359,-0.178992,0.240431,-0.23916,0.037034,-0.163533,-0.188512,-0.320648,-0.201342,0.173042,-0.12384,0.335079,0.010702],[0.095045,-0.016269,0.015967,0.321242,-0.174737,-0.126374,0.419401,0.457464,0.417809,-0.041859,0.10417,0.121913,-0.044406,-0.069624,0.208828,-0.077883],[0.09107,0.260489,-0.242921,-0.107023,-0.275274,0.321759,0.217045,0.163624,0.425068,0.066052,-0.122128,0.335108,0.106603,0.310939,-0.02416,0.490985],[-0.532194,-0.161906,0.650578,-0.371406,-0.279712,0.486479,-0.448782,-0.290262,-0.08201,-0.150734,0.315852,-0.240492,-0.153318,-0.196102,-0.32666,-0.5273],[0.229591,0.280931,0.082733,0.239128,-0.0,0.268579,0.066837,-0.01973,-0.001407,-0.030518,-0.0,-0.101273,-0.095927,0.406649,0.339781,0.435117],[-0.662345,0.96027,0.629503,-0.513088,-0.087392,0.823228,-0.517975,-0.962171,-0.45054,-0.009337,0.203825,-0.951308,-0.057453,-0.570083,-0.809452,-0.68589],[0.308692,-0.353717,0.054583,0.137399,-0.113168,0.323038,0.362387,0.26134,0.282702,-0.07934,0.261728,0.268758,0.090691,0.386721,-0.025962,0.352581],[-0.092859,-0.140692,0.022193,0.463602,0.211338,0.249837,0.286368,0.163743,0.44158,-0.057853,-0.100782,-0.112703,0.073916,0.291068,0.048284,-0.204757],[0.366177,-0.402232,0.211089,0.444804,-0.070324,-0.146467,0.260192,0.342768,0.149515,0.239832,-0.327633,0.11669,0.113104,0.369571,-0.106304,0.335202],[0.1502,-0.061834,0.041239,0.379391,-0.243977,-0.107464,-0.026419,0.384749,0.244112,0.138685,-0.190472,0.209405,0.013012,0.35663,0.411878,-0.214703],[0.200534,-0.411633,0.101574,-0.020696,-0.053769,0.05977,0.213613,0.007625,0.292839,-0.084496,-0.0,0.330107,-0.10557,0.080938,0.260728,0.007114],[-0.166773,-0.041935,0.329485,0.227848,0.092627,0.053878,-0.078685,0.080514,0.310488,-0.280141,-0.1732,-0.02917,-0.086686,0.469557,-0.165067,0.154853]],"bias":[-0.066114,0.345336,-0.346395,0.041052,0.142214,0.13031,0.066669,0.022237,0.048127,-0.205529,-0.225198,0.098687,-0.199775,-0.037239,0.241476,0.469552],"shape":[32,16]},{"weights":[[0.273291],[-1.125999],[-0.931089],[0.663751],[-0.213325],[-1.200186],[0.247456],[0.289154],[0.318461],[-0.169704],[-0.549781],[0.691839],[-0.258541],[0.340649],[0.383472],[0.281269]],"bias":[-0.1177],"shape":[16,1]}],"description":"NHANES DEXA MLP: age, gender, height, weight, BMI, waist/height ratio --> body fat %","test_mae":2.605};

function predictBodyFatNhanes(gender, age, heightCm, weightKg, waistHeightRatio) {
  var bmi = weightKg / Math.pow(heightCm / 100, 2);
  var whr = (waistHeightRatio != null) ? waistHeightRatio : estimateWhr(bmi, gender, age);
  
  var m = NHANES_BF_DATA;
  var x = [
    (gender - m.scaler_mean[0]) / m.scaler_scale[0],
    (age - m.scaler_mean[1]) / m.scaler_scale[1],
    (heightCm - m.scaler_mean[2]) / m.scaler_scale[2],
    (weightKg - m.scaler_mean[3]) / m.scaler_scale[3],
    (bmi - m.scaler_mean[4]) / m.scaler_scale[4],
    (whr - m.scaler_mean[5]) / m.scaler_scale[5]
  ];
  
  for (var li = 0; li < m.layers.length; li++) {
    var layer = m.layers[li];
    var nOut = layer.shape[1];
    var next = [];
    for (var j = 0; j < nOut; j++) {
      var sum = layer.bias[j];
      for (var i = 0; i < x.length; i++) {
        sum += x[i] * layer.weights[i][j];
      }
      next.push(li < m.layers.length - 1 ? Math.max(0, sum) : sum);
    }
    x = next;
  }
  return Math.round(x[0] * 10) / 10;
}

function estimateWhr(bmi, gender, age) {
  var base = 0.0125 * bmi + 0.212;
  if (gender === 1) base += 0.005;
  if (age > 60) base += 0.015;
  else if (age > 40) base += 0.005;
  return Math.round(base * 1000) / 1000;
}

function estimateShapeFromBMI(bmi) {
  if (bmi < 18.5) return 'Slim';
  if (bmi < 25) return 'Average';
  if (bmi < 30) return 'Overweight';
  return 'Obese';
}
